6 300
debate 0.9889315309996183 0.9561063455362079 0.49730297193328743 0.41590430805236633 0.14114948767517654 0.9115324340798547 0.8744672495486912 0.6583184884052694 0.1271714546689765 0.5089428121075483 0.07360804352028749 0.544313519433562 0.9095497445380106 0.8294948292126808 0.5897848290973547 0.7939990991779406 0.30258131131768906 0.9753740322208959 0.8589191943903146 0.8039592413383982 0.07550520811579309 0.0975320063074322 0.875568518935853 0.9739397299049309 0.5549480011016841 0.7812293981464313 0.6286371754352258 0.6118657173303247 0.4146344045469835 0.6449234311346542 0.7912339521497321 0.1038635083577063 0.06483725858820777 0.22854284751055565 0.4351425213595054 0.7541809173096405 0.015698600103884353 0.2950602858616469 0.20734875229787686 0.5282412008420132 0.3505285938963004 0.7411711487616909 0.41133487357493437 0.4586772720237713 0.6010641123036413 0.7274312816738829 0.882954639421015 0.3955862977152509 0.8878616754553604 0.9729626545531254 0.489311158224617 0.9051382401933603 0.08649338287634045 0.5078067429784802 0.3202006101254299 0.9226861088832458 0.8458739737628245 0.8620875780688819 0.8636934954960168 0.03578788515912601 0.32731693777991366 0.5794913707825406 0.8701439149348731 0.3403238444134761 0.6957540941816588 0.03541120281717658 0.5895939164149536 0.7316301219026141 0.41526031644888084 0.18550569111063253 0.8363879636136147 0.6782309550981809 0.13441971254328788 0.15017437161402702 0.8813598169864295 0.3569421958969091 0.2501151957100882 0.2920323111905325 0.2958801564021355 0.4168581831883962 0.7479801384685304 0.14291829678150603 0.6362484127317268 0.6134763727993471 0.20852734828818809 0.914521433848402 0.15626950991035826 0.632627517978901 0.43317557319100763 0.1838284339407329 0.45607542066972984 0.8611842244058465 0.4002537171504822 0.41641466985137376 0.37561320162157563 0.6265232219560862 0.66432364030613 0.10001781651143704 0.10961168355785078 0.1884156971851304 0.2989799781735688 0.4503832783537832 0.5166899708013182 0.3848860399445071 0.07852326868220039 0.6172312350423359 0.5102999226493067 0.3840194307787729 0.1022184245812724 0.010541257307096541 0.9534680288269648 0.2633784527558286 0.046238206167521834 0.9458732577214941 0.7201040791807348 0.6173058157762213 0.48990949275117857 0.6009042886229305 0.9247082983108231 0.19140297450626387 0.006640663501005228 0.4782481467854103 0.31485103887096855 0.2885222214849049 0.12780784059922512 0.5353101729341088 0.08423317029081279 0.8302131581181701 0.038402099846496895 0.6667538251855969 0.3157456719525279 0.1360448604395017 0.04679406594413693 0.08711974019980784 0.9836974427286255 0.24072455612722832 0.8122064583248015 0.4006067470827597 0.1710727577643758 0.051495840926382375 0.9602230043243745 0.22698958712585815 0.5992336717200053 0.5273790797763308 0.9437226463412643 0.9918152208875312 0.5405062838488391 0.5974964393561996 0.12491332626920337 0.9801911687001735 0.449790903962205 0.7709211487367708 0.7024901040203262 0.2535834627688923 0.6565474899527685 0.1988955318631801 0.18165360586776302 0.5156921047770746 0.509365884389181 0.5393571268121866 0.5636408459450567 0.8999614276922566 0.21416844257198153 0.5887932369749576 0.5648871191249079 0.973653102818711 0.07302400294435585 0.31176849988284405 0.33590165500080016 0.9695408110433635 0.155692403700033 0.24609639920387594 0.7737970775911893 0.03195158350728644 0.10300619649373444 0.5152743231722873 0.6122044763841658 0.027545860419288415 0.9156367177725617 0.8059501481039111 0.5707358449617536 0.31153760631338523 0.7436470605526779 0.6904320671171802 0.5223160693075145 0.8110291471933664 0.6153837412540621 0.7693074097331208 0.26541753337530716 0.6141404934047624 0.6225281207588395 0.07252709718238659 0.9427736673940702 0.4601132615938407 0.8138898178209645 0.21488511797185894 0.3125917892332466 0.4878901397169523 0.4420276307718578 0.23728508244939528 0.38585974633392284 0.13814816481023073 0.4762449261832986 0.29123497973277335 0.4418857620234261 0.311913387713063 0.5055645602226561 0.7794318824599483 0.10603926388738194 0.25228961059642063 0.7351005921843399 0.5882939903003127 0.8106970858477267 0.5694322611624764 0.9667263374364201 0.7618453177200428 0.07509090632766224 0.4794403123819643 0.2948052165698183 0.8901620151359084 0.9968871745803012 0.8845370857432723 0.0053353249781000756 0.29408886027519376 0.37911123371941824 0.882925868136394 0.5616404515207802 0.4107630379752003 0.5366887090612611 0.45354456205238614 0.8678312263276426 0.715078570511565 0.7032015814241117 0.35501907555374446 0.67546065096397 0.6961281498886766 0.6281430965885757 0.7070420350286435 0.15189991911654066 0.20850906656462187 0.6921334549380536 0.45590163120725113 0.3888765299474476 0.3961234627975696 0.9586366750292649 0.5109557559936498 0.0032510837898056533 0.1667092590704934 0.3012895031640014 0.35337597807699217 0.68526189708367 0.852965141538389 0.6029195790737846 0.24624032948195973 0.15825113916044808 0.9351137406723186 0.7673133632605685 0.40004867267502686 0.3501560560414191 0.15638074892254883 0.9560739110742968 0.5213680824124218 0.8242026688476829 0.5878427685552917 0.4854669264376653 0.13875768063012273 0.9035368478980668 0.5902468134863943 0.2098258328324194 0.9153389041322859 0.05029335931972778 0.49998072219419865 0.013048468282875425 0.4280018110961251 0.9267692483655804 0.4862155058917189 0.30820752098573245 0.49591082093874783 0.6117786564013067 0.04241842436594212 0.0745732345351221 0.4144297147272734 0.8917907909609892 0.5438298235300345 0.8165781882908841 0.8914574469515075 0.8790092307888506 0.0018133730631629819 0.7395184639316438 0.13319873962537943 0.2413257509336153 0.6834952102552987 0.5752835468918007 0.3705984096682209 0.15512980585519376 0.7210466886481389 0.6290077620176832 0.7175652976937713 0.2803749072845829 0.5345377101375843
You 0.4160823477138377 0.12026022825169114 0.016361378122368264 0.9968223731177579 0.684010647122127 0.1135869473429818 0.7215099204283859 0.6396984570028099 0.9882358831486893 0.2795458330044063 0.34926487996403544 0.7813245605062669 0.3546420599935235 0.5741927357774992 0.41779376800513746 0.5485404566754543 0.2593810704349099 0.42568162840015766 0.5660076996271098 0.9544728704957762 0.3158723775881408 0.15270609824309467 0.27025794510081746 0.22086631450558192 0.3019454193340064 0.42295581893345713 0.23686089910127928 0.20438193189934073 0.05500920939716303 0.43806694144164493 0.48117927483526324 0.47545470857255157 0.2595486987209962 0.15112360256619617 0.8182382130921081 0.20055546471845032 0.7983464286124237 0.5171170611167987 0.09572613504258398 0.5091702030707529 0.055155192609621095 0.4227902983952434 0.270533372224917 0.060869126095964066 0.2438002528424874 0.7717830327730698 0.9944029132866179 0.33647371811800286 0.806310024565952 0.09578939080758075 0.5624133348432504 0.23077604024789955 0.8016704794636115 0.9324014944759084 0.577870548973779 0.9671783104909016 0.30818064534257883 0.9273896974011012 0.690850279309734 0.015114729878512811 0.39067642751248344 0.7744017098572737 0.8977491917599628 0.9133953039367728 0.20349442477955038 0.7116603514480864 0.4408124158019787 0.8591279893016149 0.8364517908746192 0.2225798497943947 0.5020356265711813 0.2701719357429899 0.2534237757335289 0.4467793249616314 0.7898801647368925 0.5409476355947225 0.7961644231943221 0.6140400405101757 0.08417145965271355 0.7978437567915454 0.304328144558341 0.7115358537515895 0.4415479898789473 0.012172144657546347 0.12329278223429296 0.26639423779041016 0.4444817117972756 0.9168275213191537 0.4188840820295918 0.7255600097617676 0.014690974122571032 0.29531725795621133 0.7492413169531885 0.27902265376394253 0.06273119255971171 0.9994917329577331 0.01735288140209057 0.7419439124066314 0.6956800105128117 0.6990933402161523 0.6152382783935259 0.5357569223518122 0.5240500996658256 0.7871996391135105 0.33542020892975644 0.6442192358285141 0.5275931810792607 0.5589665878897729 0.36327539388015995 0.6606675000731607 0.022925084125680173 0.6426768203850114 0.4078157313308475 0.8090103223394917 0.11405664393650095 0.6774811552401833 0.001999665866876721 0.7546606738214977 0.5398602667450713 0.9665596267950997 0.4957807884462547 0.9889442933974681 0.7932036341352906 0.42823309492580985 0.9594486308181848 0.8592374466239635 0.677889476250306 0.12329842548705627 0.8925356186806658 0.5790339861186206 0.9682756464293298 0.7265459564832504 0.601054321137958 0.28903974965063195 0.9277335691566887 0.34686552447399466 0.34262653280261657 0.4391257912803831 0.44385696998160173 0.49270944192238075 0.6318169626466997 0.8952028224526832 0.9585634297862882 0.7578559013277195 0.39596663715262637 0.23381885366868582 0.9486940044098163 0.7313644711256709 0.12850039438755345 0.596236242884617 0.003007541284790194 0.8306470586570265 0.5131404621280679 0.2293996408120732 0.48307724412376196 0.4407752582949884 0.7694788911280289 0.7786278232795142 0.8236408888762381 0.9198465984782009 0.9400902310210056 0.2821960735543312 0.8002934038339223 0.08236336559360136 0.9928858016351868 0.8736501833754676 0.5008417270397617 0.2026848300918045 0.4665851855576353 0.3194918687665329 0.890826352166926 0.3299021902893139 0.28389924283427326 0.6770454109932635 0.32884084493112054 0.6589055404117019 0.20608713779588028 0.9698452560775782 0.9639509016455691 0.7420398631357432 0.6513748059860842 0.12115369116473473 0.023410695381669955 0.6317036714216273 0.494885271086665 0.122408145485847 0.24218023080293938 0.2694042017248709 0.6596549757351394 0.9936343663995447 0.770630006422495 0.3186077429183184 0.00911798389720786 0.27194287889888635 0.10821320660483735 0.38823584169867686 0.2482016480801903 0.9770797931009857 0.4932221125459032 0.08471194235219859 0.595070416909593 0.6607525305156949 0.7610639274857791 0.7756478843897722 0.18034309034464535 0.0451916914752839 0.662287779638495 0.09896420496484881 0.14232581724878302 0.2461210162006292 0.2557065474646365 0.7995140289844014 0.07342780627099788 0.5901973486560779 0.588537537597096 0.9618634324233867 0.6804254572750308 0.9208740987707994 0.025391785497600683 0.32452870517130705 0.29731107680785873 0.5196216201367548 0.9390927689178679 0.7400612401419374 0.5701785323590598 0.20895609828627582 0.23823328861851034 0.17987868155201603 0.0319849033788544 0.08597606495946541 0.7211606983275612 0.18529764709780483 0.7000361660978696 0.23166185670161887 0.644236646431891 0.39864621650023413 0.2960292371523978 0.28195589966236934 0.34029343011353974 0.7636225385774795 0.20990170704416833 0.6449388341856358 0.32751303470840565 0.5569052704328442 0.7238567872617475 0.8850422597682606 0.40050978859042585 0.7092767726999439 0.9535621607027681 0.09409672974005345 0.35586055586749465 0.48051005288614523 0.09460379178251888 0.8658139341549688 0.4062812786348212 0.8160061751396227 0.15801173216441255 0.60263635257915 0.4174409845621163 0.8432619388115767 0.19732154981662664 0.5151151280668307 0.6774663156562649 0.07367045525957827 0.7612595737630579 0.25131040681028494 0.8392817337398677 0.3479056295816232 0.5545923113173911 0.07612429214909444 0.8704947856538011 0.4412385361444905 0.626905077177594 0.5164766427878492 0.7230131859780148 0.23986518435290283 0.33008027136266094 0.3951570149302589 0.4195878689507584 0.5321921533606448 0.1603030921361117 0.5228718662093131 0.7201363396744782 0.5354883894169187 0.2802160561960979 0.9691605028305236 0.08025803935686082 0.10690691424124543 0.8334933811159155 0.8036082459743127 0.011193784127537576 0.2749881001346617 0.6934853552267525 0.8944358050680288 0.13551970093134835 0.27023733090132895 0.39401485562214833 0.8691031463375651 0.58803315487055 0.4852520317673511
requested 0.9192077002326423 0.415492884388336 0.06117776332583558 0.3393580771214343 0.5844915857980739 0.987991287529049 0.6823892961226272 0.1720435236931247 0.17988085454733205 0.8329310756957696 0.14449300197557613 0.3033623667054669 0.8811332365608131 0.945702782893807 0.34654740631111147 0.5108073951702239 0.03287513555943378 0.32145193713756837 0.26355164190415703 0.08524603990708901 0.834013361739151 0.11957339739616357 0.4013171946312122 0.762285492909543 0.874630541273212 0.822346346989176 0.5210947848197109 0.8130054072477099 0.7958886026213433 0.5631446730521662 0.1757342924083225 0.2304347369934906 0.08262956192976478 0.8722403087257067 0.8965831374697211 0.4194526798231353 0.29595987825883174 0.04941163417491534 0.22649639629425022 0.03927906153175553 0.054747577061835084 0.7859142275363684 0.21623294588280628 0.28258905830025205 0.7069512503243894 0.677818794481614 0.6604915007773127 0.5286764211273414 0.6176991601066958 0.8898917959210518 0.8811800790303861 0.665401030512917 0.42691351143973955 0.0596125367760042 0.2657294006255164 0.7732488972046477 0.14573294218576816 0.20016718461378924 0.8084789344047609 0.3350781320290217 0.634494465782986 0.19125326705872503 0.5190300959123751 0.08426336707488224 0.9844779804133699 0.3630267222946445 0.4100312731525928 0.4061465419416038 0.3411718931696003 0.2828105733637375 0.7916726828444334 0.6147232536214456 0.670589093881944 0.7598170048830049 0.040181504588008954 0.011272086611670229 0.4722925719971123 0.6628805228176364 0.7418913544125039 0.7471917905425791 0.986594068337588 0.8821729767500682 0.025287217369884596 0.7157152100820848 0.9403190788045397 0.9432995366702189 0.17272145221935276 0.8053584263036679 0.5879716457291749 0.3453574663866734 0.07484567294050115 0.04585350717743175 0.4110256604967186 0.4888604901452964 0.9880316985127394 0.4124968385673158 0.8653013158368443 0.49045870210185194 0.0528640817272068 0.001895137456111362 0.6658276913023055 0.48804975864346456 0.29519536717919015 0.235405180742138 0.4765188032667239 0.3559849492345505 0.4881904505162312 0.299512114194715 0.15714248091562077 0.5171905784240726 0.8130711212355428 0.20451572558127595 0.2227655715118303 0.3148968940951339 0.5032185975565383 0.032861706198162866 0.9264611503147144 0.6458748610001921 0.5438615155656963 0.17958115638041716 0.5745433451415203 0.8065469985942457 0.8816651407858968 0.852591551312556 0.6054031899584785 0.2378569007147311 0.25532706437218644 0.03597486392503135 0.7491867048094658 0.352167310640603 0.04876678327528361 0.7581252914653199 0.050052694279623555 0.32473401961220827 0.28903714145929416 0.5782667563993048 0.9852799302898672 0.7150530136099852 0.5873316932451417 0.6865727722601661 0.20846071832336377 0.0717755573403156 0.1299347991727584 0.37102703209955845 0.3295561153422184 0.7382606231370515 0.5503964559265325 0.32010836552938515 0.7226276884866841 0.6953961566746693 0.6567283377121024 0.222319092969261 0.3419415857945153 0.6953473283596362 0.1279480076917704 0.1585167443653378 0.682478739208558 0.13273488914352238 0.2421293716584394 0.627203532169409 0.9502576486841289 0.7001790418438385 0.5384823871675609 0.8154359525103162 0.8025186980702494 0.41957012174954866 0.9470985299377704 0.13921590777721082 0.5288938166096078 0.04409204863821958 0.557040224852925 0.5178364909489136 0.7952652051204232 0.888964990714399 0.2176796924080926 0.31131128882088166 0.9669569950191897 0.09678265636848193 0.8660797820843207 0.8427111226744217 0.6867175967080393 0.8217056004594695 0.3267504665275035 0.18043667117003892 0.7121167291062449 0.06026889933037327 0.08756488893261849 0.18865195935779255 0.6849790168191704 0.1582710892945539 0.9631417986188038 0.6266674317231021 0.6935294262412026 0.8415293750854521 0.9303581694152404 0.3525104110949856 0.8012724972955962 0.6063887295495368 0.16026345914477436 0.6773653631125891 0.6816956380818333 0.8324885292604208 0.8178070110325685 0.27462576796848237 0.36997855784767986 0.28553972293239993 0.11919148791852496 0.22072979788870173 0.025370210275177718 0.3036241972951904 0.2691151572232452 0.18122747895349112 0.8306949653294841 0.9484780151850049 0.9473327283625146 0.5245578749277187 0.4564368256815634 0.44950269540306986 0.26159923346366987 0.7580083692952314 0.32724922102942133 0.49344373521628704 0.6960845280739345 0.13333698982449915 0.40035778320211357 0.2969506551213429 0.2854879316559129 0.11146980622603209 0.5783602910222768 0.0691100261471439 0.19455131710517193 0.2760860327503746 0.5440673462094961 0.7951462926562872 0.7881534713490431 0.3793350478898212 0.3372699710267554 0.6535158254239196 0.6020815071230431 0.5647570678252838 0.24400865238467118 0.6290723687597619 0.8692505491171509 0.6760497746609601 0.5400390977538547 0.8571017624725425 0.97190501858985 0.7360798852902117 0.45830322974518256 0.6325938459796612 0.9137574195542528 0.8309914072311884 0.7837079955420466 0.3374025908665891 0.8463719544147315 0.1306494164301064 0.8755428187081492 0.9446751241058523 0.262990670281959 0.3121529139193746 0.6284337513426833 0.8688675413107346 0.8213769531559767 0.6625301129157166 0.7578804715549146 0.8541451095699465 0.5241203433316519 0.6403445368927858 0.6543782297324718 0.7146892582409299 0.9443344130941269 0.09473672670685251 0.6162137565997219 0.8972469840029664 0.8874812174151945 0.06290164740393578 0.4172206642959616 0.15138086379227755 0.24219482483277366 0.7058548160511546 0.37152389768599536 0.5669063213008377 0.23534713788696016 0.014629375724639737 0.6176814251512814 0.7589969317879077 0.7371353481725323 0.7272848508800251 0.4634896254235735 0.3962031733479213 0.5808476430330042 0.22058171380920455 0.025443404822093174 0.8174808407826352 0.474426346216387 0.7389712413354584 0.1599828966088982 0.018574174716698755 0.2733701231599006 0.922883681448521
on 0.963292556044366 0.4082553218212338 0.8379281389091061 0.6405267878709531 0.6871166101713228 0.8093806763769229 0.175858793392755 0.6407317625949758 0.8582453636564792 0.05106808620956926 0.5993458656144551 0.5811437231976038 0.5374646378258531 0.4938519006920383 0.3815492590119829 0.01238746209813646 0.4772053079900047 0.9772662508902165 0.11684302188432671 0.5212514051208983 0.8446740099859046 0.6007848591410333 0.386774438987205 0.4429181163910263 0.2786737174635946 0.854200663263909 0.5704223240621448 0.0179760900076239 0.8794236458136565 0.7694204113111024 0.6809339741992052 0.5194555625060329 0.050534356546845904 0.15578646736286494 0.7763332113297524 0.12663431359378308 0.31091552623638163 0.33981927077307106 0.8241748586226308 0.8618354632571926 0.8366543738642623 0.49086589802329117 0.4454346110451938 0.9497001591183808 0.42282894448685904 0.10155174221253305 0.12596488109605064 0.3984101245139672 0.1612481268740812 0.5157948826225297 0.06094765904375066 0.9233166224669247 0.028837672429619876 0.6939630123395678 0.2567202519167572 0.07989393611709361 0.2836860226362611 0.11616891002963048 0.9711845552748061 0.028443197247875696 0.5506227162537382 0.7917912781822508 0.09760012969926823 0.10144852415424288 0.686737664745132 0.38622759598358136 0.36445712999668545 0.3839386067261865 0.8644276118010065 0.8202565852192781 0.7820987167101873 0.5139946023845944 0.8199668820811811 0.293959687915734 0.5177556296851689 0.5556639859500573 0.3603886818456463 0.40651965582537 0.1693012120424039 0.756380245556243 0.14481931545257376 0.22435883678558988 0.10525477915597703 0.5407327881377929 0.2605009305744659 0.7727845921442474 0.9817799483586709 0.6851122009413669 0.15916591733566499 0.7532980912056095 0.993936352656569 0.9305820654396814 0.7061375417024323 0.8469062200679662 0.6210167040543223 0.2539361496543495 0.2221080014355884 0.9847378736489837 0.14583102381185253 0.8305758421357001 0.8444376422595485 0.2566605352135395 0.1421373711282039 0.5084446834543094 0.8785036649435068 0.6272840120967124 0.7433478337887022 0.27237046097954476 0.6593789935859133 0.8758075925532347 0.12318542807473054 0.49625165355218837 0.28083823036297795 0.45613863779960706 0.15440047689852765 0.8172539721954578 0.6365488708465445 0.8781960844771203 0.6302336216566653 0.9997974872897586 0.13914582415931587 0.5817028871692647 0.20109852196369582 0.9990754109291156 0.7474452135659421 0.5372494204351117 0.6307325649067563 0.9951669231593507 0.8150105038906463 0.6002210830917581 0.9590180075449957 0.3188533293208031 0.27911860512103537 0.12361692391868395 0.29973934802345725 0.8213071995529314 0.035576207533438264 0.33712179463997405 0.9789599169847789 0.5358960369527974 0.5443142639198562 0.3567938214840173 0.31816973270838544 0.24245472128290568 0.023980729415281177 0.044481435549272974 0.8874649487227453 0.49427900075476316 0.9372635381388802 0.638397702253741 0.6911003284344589 0.32667177689014915 0.41704286412334834 0.8443363197076994 0.1548786548134784 0.23853678831375136 0.07740027732234134 0.12018112821503912 0.307450031488145 0.26948727333023903 0.07928380957695724 0.8094116414386383 0.06956883341074493 0.7725037728553431 0.618835989084743 0.030493375846851523 0.8662605961405511 0.8797786260681768 0.23753352827087426 0.22936878186159726 0.11930257463638416 0.05449989257569421 0.02382003933700161 0.39144117144851454 0.486817786237962 0.46373162911397836 0.1672996493202995 0.2917834021764696 0.7531736254341431 0.7577277233364211 0.7480229450745387 0.2900570065434356 0.15806144062508953 0.560691397745611 0.7285343732668121 0.42932693868130223 0.7092331571266584 0.9584306970276409 0.7148204880755942 0.8424157555107153 0.7277576624812928 0.9510327597502979 0.08717690580496174 0.5406191204688854 0.0903457665947115 0.6161403970826493 0.8471608569895943 0.5131346844751121 0.8320597914955272 0.777957687149774 0.46543702609456505 0.7459129557668115 0.8582941426390689 0.24593702675340934 0.956549182591641 0.5823154402664312 0.7643150291884535 0.06444184362181649 0.34993201946972274 0.42305764955772973 0.9128197555291072 0.5423851223597033 0.8782560284665103 0.8064761260048096 0.18783385238582062 0.6441163038312863 0.8233089731586138 0.6341186046589711 0.3022700335189882 0.16078076530523155 0.1026069294127574 0.6469166619241788 0.996781219653132 0.02940060495867347 0.04807090388872093 0.39348758560340835 0.1536876216484332 0.7353396718316881 0.7113363421691921 0.28196651744006873 0.469841260143409 0.5473597283882333 0.3639238891086315 0.10317183905141503 0.14655135892908244 0.9143935559265912 0.3203902824816435 0.6079809800591423 0.4608666909340945 0.8299829357367963 0.9868153554762544 0.39961859397864163 0.2653507175490273 0.7093605958796776 0.6042436805766556 0.6742637527075862 0.18304437865690404 0.5950329791156688 0.7831437435147692 0.014519229776536746 0.36577097967958927 0.006153040810512822 0.40278167919502206 0.837654997185827 0.13436023679217102 0.3344101722549987 0.5021891539389128 0.585267318594129 0.9640758632853058 0.3579520508887908 0.12559987803725237 0.6966712566033882 0.4695113470391231 0.37625735018634243 0.7396961013481921 0.5324504879431736 0.6822158884185661 0.3633610626676287 0.9571005649931535 0.4860568176169098 0.8690039746359115 0.21174139807972514 0.23905882584718685 0.9873731168933336 0.18964420445744368 0.24083268844692374 0.5331400371077611 0.15264314258613676 0.4625504221116141 0.569630183527847 0.04776619605634913 0.4299875660359205 0.1159360277184468 0.711412893648743 0.34845488846963146 0.48836812929468976 0.5036537000063015 0.3902744478630428 0.6605331007239763 0.6496462860892995 0.5574682817132602 0.6074545722805897 0.05288265159397121 0.913788006153181 0.6232130099754565 0.1751355144707365 0.2980157290563554 0.108893860439497 0.7534846727899871 0.6456004836379515
have 0.6804442016379928 0.8782720563952762 0.5477764943215143 0.37139948451601024 0.07037754372549165 0.6573768083016694 0.6925968194613159 0.9544879799234475 0.49635166577176304 0.17032275118963558 0.9587621664411835 0.23753439321083258 0.604509837171261 0.9358764414882986 0.593230567000305 0.30371481361779695 0.5619248832199596 0.7398651918075203 0.41687097655549243 0.8870843976185758 0.22265757328836888 0.1391755187797904 0.8245447988347853 0.7433662317905622 0.7175977559254307 0.26440643235000316 0.8656131338281865 0.7448325399042413 0.19541436317966265 0.9686381178111831 0.21475302589658307 0.4792375704279084 0.8822671111274476 0.012904409655830396 0.3288773419699478 0.368001467684564 0.12399263166366581 0.7847937531989774 0.3314403263830087 0.8046164547984141 0.7636998230573168 0.8493947856036946 0.004372042024883616 0.9731971780699125 0.7468181779534138 0.17752276607666395 0.26083488181820547 0.9055570518714697 0.6004279280541137 0.09368794216414267 0.7529018680951571 0.8700070559545887 0.6823266112310943 0.03946964447970325 0.7798575116867525 0.8675922563604473 0.2703315821665061 0.37546541896061625 0.5615310220316423 0.6622533607551387 0.4814812000787281 0.5222691735908049 0.9236632595665443 0.23023142716464584 0.5167352915271286 0.6720206536201712 0.012450792349152806 0.35616235426002474 0.3783022099153175 0.49390998804780983 0.2539520296774953 0.5330707166972277 0.37806733218605626 0.7485344231790311 0.060435012708699776 0.6720063036817163 0.11913073417428721 0.7770086029437395 0.6043472443272642 0.49793610646068964 0.2434122883013764 0.6864935700772199 0.7042032773171745 0.5388822284469216 0.550680712871514 0.1479727505093955 0.31277125920916493 0.4249473145337197 0.78799122010288 0.44022634330404253 0.2466541784489762 0.9394163075454981 0.8882833348960413 0.4336697560598325 0.7492640644319633 0.6179300683747034 0.049243163991166905 0.0012559502238567166 0.9236903982663711 0.8582304050019955 0.30516164237454035 0.8045135075472809 0.27987974204823574 0.3285709745415484 0.8554903021198836 0.09506292537763161 0.3771301056030617 0.49239299578887097 0.2390957499707136 0.23258947192711932 0.9352778145842288 0.3594331633459148 0.10556900004164194 0.5992471211379746 0.6980197137499076 0.12104294886610745 0.21191169418302136 0.07231191371321333 0.9242623347769849 0.2941659708545592 0.4009378716135945 0.8566929221224249 0.012288277049000818 0.0911420511797486 0.39851766447947357 0.28449654841436556 0.9873171340138305 0.5014360444039355 0.4306135164432111 0.6541587647503183 0.4119839491264753 0.7993298962237436 0.8860454715283699 0.689466681624694 0.2938326679753387 0.20004222791091375 0.9946768525175095 0.15926755743347698 0.46780861021215003 0.8238296969326603 0.09674879847777329 0.031831729490571115 0.15458870043037276 0.001065049711115429 0.36134072477548773 0.993438898898998 0.7009431335849026 0.4928526817667275 0.682437913028543 0.4206008295948208 0.783989002065308 0.09452692699403886 0.8787157024802937 0.029707373957200356 0.2451030029820671 0.44755945385866625 0.4667511272068785 0.7243065361323495 0.13589307533194306 0.8156391590705592 0.7816298470371023 0.2707397597622656 0.8905216412194498 0.4151749786085892 0.07703322191253958 0.04083379078310767 0.2257321135975906 0.02593593954412743 0.8088373238402891 0.7347352309142396 0.37593071749604556 0.025997872599694993 0.7082727642740879 0.40830457713790547 0.43077151915488854 0.7816521389008891 0.7420184374294129 0.09693856399595446 0.45720309260209047 0.5984560521372255 0.7879935671300285 0.30664637890844726 0.7440848240649304 0.11732623383473417 0.656549693076978 0.5670635764183835 0.13522220781402094 0.7509814416477614 0.8132242193221523 0.20944859710396768 0.9217716184206752 0.6019945864252172 0.2742138079402845 0.6120059681169165 0.8634757227263359 0.8359508632721407 0.974091371883042 0.14039742105583808 0.6556673346424573 0.7876602657456496 0.06626348882968014 0.5942149730801364 0.8811245982962059 0.6560999778681504 0.7896640841463362 0.13139449455589547 0.19449227527832513 0.18606389032016413 0.33691798427097897 0.6743620780142039 0.7450022891786249 0.2792648708215646 0.5279818010834927 0.4303093348925533 0.6836385155468151 0.8466901642415857 0.23756423051319098 0.5218818325005952 0.5323513467303187 0.913654424759864 0.07223804812775503 0.7377121110563171 0.6316704650428246 0.32395814162312675 0.08234071646050445 0.2750373145726278 0.42463416913170215 0.27650891453939574 0.8422656476293905 0.8403677820481057 0.8525702849885823 0.1432265776443914 0.9196408519608251 0.5505582460595607 0.4468846561604831 0.7604755676070082 0.31487453519892994 0.7825648845336189 0.3532224120463975 0.6328156458766748 0.08540145958945722 0.8629404348304552 0.49857285687226527 0.7825347698483435 0.2037567131819038 0.8663914445636233 0.8007201528630472 0.03199381060902662 0.10526097843606963 0.9771994264539228 0.30231150585908895 0.24534305598208506 0.5749982684777842 0.7634600287868513 0.6139929516493452 0.6944080150831359 0.149687816680397 0.4457669029052185 0.868090437288754 0.9514244850267193 0.9332800643143889 0.168522024201883 0.21340544557064722 0.6222579858637306 0.8795220909351901 0.8348875192683752 0.8082767637472226 0.5316703735240678 0.10887207310237867 0.09282143451495617 0.5689965997093291 0.6505148106767008 0.4122889842354793 0.7592683190283089 0.2689760168823109 0.4995010053864464 0.09271910318458088 0.6365178124088564 0.15675546345047897 0.3109381252742921 0.49660708775727047 0.2685940962720258 0.5181011521933944 0.8834040741834883 0.029701895080768814 0.7596638134864745 0.1623936606348081 0.7417902474243696 0.7792303285087927 0.8700605287383907 0.2669228242242909 0.5518650054271393 0.4101543173594451 0.34687442557845083 0.843680015710213 0.36977234245120616 0.9540812414806086 0.7360014967204309 0.8598193878598887 0.04400857228896271
a 0.8382498104570553 0.039240009359416406 0.39464271290690034 0.8790584395167245 0.6833907749475463 0.8162033535087718 0.20613273432400114 0.7849639211942265 0.2554330152845208 0.37029206222913047 0.7340886825678893 0.7507886483824416 0.6797183992349041 0.69808521797839 0.21909835491208318 0.17087126539742759 0.5222781425358074 0.39230947968534013 0.31745852653265483 0.5053438062387116 0.44079027708796603 0.7005453313633987 0.5456454548827183 0.8058549708945574 0.05410569271660348 0.8765554753421309 0.9167257508759266 0.4240262880149255 0.5680602535158841 0.3318816287264693 0.6624327762024156 0.1303355608504303 0.3656378616696594 0.040937773821330015 0.47806652449479325 0.03691427389193258 0.5556389083352103 0.9880870569191249 0.45841516759546497 0.002651421756158512 0.38925104371613617 0.443794342382566 0.4940301390042966 0.3396939808984959 0.6504728710890085 0.9671985641973239 0.03346123895680975 0.3093502947807518 0.28946673852232996 0.5950798438303498 0.3468667488407666 0.45827863825524884 0.2382119800289071 0.04232959974073791 0.8086831620381097 0.03406917333338899 0.4354728615807134 0.5051125434692035 0.09647486720246845 0.2866331240876998 0.9247207052464955 0.8149858607050873 0.59528156155189 0.44769943043733607 0.3883833400087414 0.5628875851213674 0.13664033063445113 0.4086021959862667 0.34214855571790803 0.1566994337630344 0.26889811049872736 0.1122735795708859 0.6713766072552222 0.9927979628154948 0.8700822230064699 0.03247869511014745 0.6997485669563192 0.003088097491178776 0.08128004013898149 0.5362848952478031 0.5834810332264302 0.19898819950565272 0.5009489957039622 0.445230514700508 0.29258658281853334 0.7568398166469761 0.6475718907712914 0.9728501850791753 0.22235963986936225 0.7083841155512225 0.5414159617647056 0.9321612113446373 0.13726527772858033 0.04844526837993246 0.13921566997656754 0.8435312525038097 0.9187348795246273 0.6802998826903675 0.3466222507403812 0.6769186835026245 0.14167788273581294 0.4488755698162724 0.8760689221789296 0.6317611587712972 0.5954230334200932 0.5646671883961141 0.34181290782769036 0.36218747765711057 0.6857464756284626 0.20007862929625975 0.2731654308977144 0.8899520165091591 0.4464709741288321 0.5380284350252476 0.6807996168535536 0.6897505368252375 0.4859515958430112 0.2933906651186392 0.5960882676216847 0.9187096878410623 0.23378693173454412 0.27539543641180064 0.4279852786581364 0.7795193003340719 0.3783070166118231 0.4719762261606907 0.6288533965394841 0.22290067399767455 0.38666764174268764 0.06560143920347483 0.44027888830538353 0.8965633758715502 0.8930475480401819 0.7174544717912251 0.8830498090654302 0.8965109475724056 0.8214961042194601 0.7043727487086046 0.8713300179346255 0.564769023217997 0.22295404880538394 0.2536412840138117 0.4577138494666826 0.5328137203942042 0.10760368211747628 0.3252386461631509 0.08174882386213966 0.24011613996148096 0.3242312512488881 0.6614202705379606 0.031419774734465 0.5406686889260304 0.4905677790822657 0.20699342130886367 0.038515011972936386 0.23152577353195525 0.6436504041577462 0.028237122638387624 0.2947145924900486 0.5952452644827793 0.9493872606609869 0.29648334356186656 0.7435998030638695 0.8239922547689797 0.4006039086459431 0.3087230953271328 0.8000337982329091 0.26837431404009604 0.9293041800926528 0.7022844047690314 0.11540319546552902 0.16967548386023967 0.41446542703026434 0.47371908153870557 0.6553072429965672 0.1887685858169107 0.3822035387523971 0.007489333457800673 0.2622627526431113 0.9801022698283901 0.32808890141505287 0.7218391180163509 0.3079660290283672 0.053929063664439836 0.8431337799855079 0.28696962554858274 0.5921236768351849 0.04748153960915813 0.2827994928839558 0.013757715646546376 0.8757031232042098 0.36491779318440143 0.7976391526495465 0.8678029052238225 0.9430846609158695 0.7809552021798524 0.5323946141913775 0.4951817479517254 0.40922283888527655 0.43907225944858863 0.14628309479623802 0.9331212450721723 0.5890073919981912 0.475008773102916 0.7533051586779852 0.31845163903153495 0.28740177881263373 0.37701018600114367 0.3525581896908896 0.44670679228186294 0.2605071868277814 0.9596081761575006 0.7448192661012868 0.9638029357708099 0.4523684916469708 0.3376963314549025 0.11749109251357392 0.6774682089882772 0.3769481731966059 0.8621118669229801 0.8909623232492163 0.08529926557543643 0.5509990304209785 0.2404861211762579 0.844041443405117 0.3179188512825416 0.48290728551556095 0.01143178502808273 0.0697562290820396 0.0714240584171898 0.388371016542543 0.977462023811373 0.0045460214014100275 0.7103900711945825 0.5757387448762112 0.6729272018458561 0.0037373408975385214 0.2957067060681423 0.5689356220443506 0.18528652461866846 0.3538392245345715 0.7299737111843593 0.2147641900171101 0.5586435466977212 0.47121691575215685 0.08437182889926087 0.4718739532945322 0.05228265048770908 0.15451020872244947 0.3119170179794366 0.24994871456295065 0.7035965560265233 0.7875645443722464 0.41142348059249234 0.3225915773509016 0.1654939733114622 0.4475235197510061 0.1355189027570579 0.9807236120362912 0.7021983450312657 0.1266798438671347 0.2997716873122903 0.7563504061611597 0.3847015730351171 0.7719205119754126 0.17052388687217201 0.13556209695269306 0.3588191455291603 0.49449538041163277 0.46707754492100306 0.2137105414641568 0.8989940131638039 0.904220141866725 0.30076803842805666 0.3341563615065326 0.5366744556468479 0.9921649066355863 0.7809855591170173 0.8182014015944131 0.7963683381109893 0.23087749442247152 0.45422137645552607 0.9827015438192043 0.23457640140069147 0.5567301628138202 0.7717858410090956 0.8409371410387371 0.02482119585059195 0.639744597678752 0.1304284573291914 0.7664153291526284 0.8265889773216656 0.9468187034282628 0.5493730495762777 0.7320234131547106 0.4749784036338611 0.39440115939881215 0.043390716994578526 0.8222437548158601 0.9410200634102408
