6 300
Bürger 0.4203193735912878 0.36198669202428047 0.8548035994227439 0.8921947674343138 0.9316616778928065 0.1447660204093384 0.5251269308793856 0.7975215219289927 0.9304422203839977 0.32909108131555154 0.1805328534856837 0.27251614622528997 0.6502657563727166 0.5559352474714357 0.31486230039755136 0.46239351249348526 0.019101882469601206 0.630979510217802 0.12391764002629857 0.11658346332272806 0.5953638922917328 0.3771576771327835 0.29131338724823586 0.0047749661766922635 0.18589169316385756 0.8931024446283373 0.9189727024211092 0.38353475891475475 0.03226670124265085 0.6321080011360264 0.21642670066948966 0.6392250231020623 0.26007397713716074 0.0710771333836967 0.1405915545707389 0.3846194630592459 0.010341559528309396 0.3504113571002413 0.2871971591579231 0.8601272251037582 0.3077914235447897 0.07927353087636713 0.3524163165189447 0.8266828196424656 0.11676246006070412 0.2224251299229375 0.5936523877569175 0.8122111598130023 0.7961716947625899 0.005055431260765464 0.13123972571543618 0.6559818907509237 0.12467264511266885 0.9075630354119274 0.018353916231764633 0.8513538911345657 0.23436267448201875 0.15647222220422718 0.20264086212796306 0.1777849135486229 0.5971194744507261 0.648106599421107 0.23755697009289023 0.761252728916489 0.8692853511734135 0.5076764259382059 0.004528665765729856 0.40739878791740614 0.0523449426107947 0.2663376160419574 0.9053012854522345 0.2965220797811491 0.33711052341353254 0.11718647770786106 0.5565914025299815 0.6758362546744238 0.2646991847158797 0.22176101960656747 0.2547045593950058 0.04144840537014749 0.24990675833010123 0.11901547653229672 0.8879003038807871 0.8914266432307345 0.5745227925336456 0.2945581772987701 0.7278631172418504 0.8838152739612153 0.22020155164218436 0.3951268640697021 0.6433328279979185 0.7753068562963191 0.6255595606766408 0.984502028991037 0.14287054503748753 0.5127931408184413 0.3977354038851918 0.07563684256452807 0.09089942096897785 0.12486195988951898 0.5112053253624109 0.041793286023730225 0.957099659972183 0.19049125926217325 0.7858835638387814 0.7737525952152436 0.7566090074792338 0.6937985335150059 0.9837960870930218 0.23282973505994353 0.2139899975642825 0.9370491745971153 0.2881382759176784 0.06890327254225825 0.5466662486851581 0.18490498419744328 0.13130687139827524 0.6700881582023326 0.6917054563863833 0.13830898843883177 0.5042011018248731 0.9539803800233434 0.8429122985768185 0.8210656124707725 0.8920497920345313 0.8619487860853547 0.45072942996682563 0.15030069214365438 0.45050713724655533 0.727094314922398 0.27524906687770767 0.5536587046607306 0.915558071458686 0.2428391114264291 0.7909452207644704 0.8508127943759857 0.02376843682090124 0.926650566640931 0.15348674671456075 0.594532448582673 0.8851559693621875 0.026705103296340682 0.24467200345243434 0.18624126011523456 0.4013277169721834 0.10068115957441082 0.9119964723636037 0.21208852304407244 0.662776381825155 0.5280060301493134 0.372031264595699 0.4176077684515903 0.5906446423781743 0.008058904414189993 0.35593219063601833 0.07878039534841708 0.917492739719204 0.2957364008736558 0.6647002845584747 0.3231643641123987 0.695922290443448 0.692669846417671 0.583901729153979 0.5233951372735965 0.7031567550795255 0.17943431192319192 0.3692834668664867 0.09152234730968822 0.2508378638796439 0.3607039469419462 0.731319132022072 0.7396751437352599 0.7686123676135386 0.018376434003902098 0.2965523354721603 0.371602925013782 0.2450291888102376 0.7713330892394409 0.3154833692267267 0.13476467309398 0.38275299817569985 0.18685745348653715 0.6993269848268772 0.24427034435342476 0.131134142864486 0.5313943330341911 0.614798281708316 0.9595438170529926 0.7647041801342046 0.6007015233334085 0.5347036830344039 0.742815212291165 0.6019203927210458 0.6073371283898829 0.35290339791071146 0.2748853720847376 0.2003988240300585 0.5786832092878553 0.477402068610405 0.9162719246176149 0.3065001855143913 0.32598520417706267 0.9462531186654725 0.07036218140695738 0.9594912648744819 0.056554390530529686 0.9518369916760756 0.6163453490782052 0.9174307058588375 0.36578919127894927 0.09783125665836256 0.023326523866271764 0.0448904583135028 0.15027378381049816 0.6222314748175837 0.525007975077712 0.028530287278904498 0.25338933128118735 0.4394128464691497 0.9293051000232189 0.1935392051393221 0.8729521755254984 0.49739814204221844 0.14047785661421153 0.364558286801953 0.3523469521951268 0.8354289827604717 0.6383741574657738 0.7623181269544665 0.6118565692231187 0.6779077098281572 0.4127326814879696 0.14547110055142964 0.39989476668840185 0.06344765104708816 0.4193489459711295 0.44492162616697084 0.22330971858594173 0.23813114592537088 0.5976421464634506 0.2884444119519294 0.8501800964309877 0.716809028464695 0.34248537118142097 0.5019446568591623 0.22485133969433135 0.9192924375162426 0.9127405399183333 0.2052475369911516 0.949627342854238 0.3388286286161929 0.9460220667862297 0.43531338405267506 0.6182112140722019 0.9966920860146667 0.5350479542453925 0.10697162035515762 0.7060370304498866 0.09243918075504765 0.45540395378150766 0.8304390195547128 0.6588187635339883 0.9211896266280923 0.4594892012773608 0.40957548042878367 0.6628827756719746 0.4463831204824633 0.15758890699225725 0.2322686928785076 0.6092748254841472 0.4140043476563402 0.7885905444076474 0.6498797458864949 0.4662586683533748 0.25549857871128057 0.8922031563219139 0.5640740574529494 0.8654135142063699 0.6956800836298348 0.3446219143952639 0.17395201579725594 0.7438302944800392 0.33577484188828766 0.30619302674717563 0.43698987874014605 0.8207478655196613 0.953004938654725 0.2523649623650631 0.9134571833019173 0.5742360280299231 0.854438846716886 0.58582898191419 0.9336171784802506 0.5388460632124314 0.27945409145911027 0.47544265833861177 0.5020790551962452 0.019612432565577875 0.2179616742513898 0.3616331773932935
einiger 0.6284090140295069 0.7277692419611699 0.0052303593056994835 0.9180070158544851 0.8939720050288382 0.4240280988118139 0.10066511714684001 0.69290884834886 0.45660102762687127 0.40738590091196125 0.5960034717317236 0.6098982396132546 0.5253466383867461 0.05311289898416671 0.25932081015891206 0.5824680998581309 0.43969286911791206 0.9181962596964804 0.11139169182617747 0.4327721084587641 0.6437553429290294 0.9062389936967076 0.2913759516487916 0.5552889021036777 0.702041377996434 0.4791751676355498 0.3438279153087873 0.8203722439795033 0.07737152863269992 0.5070935271198019 0.6766314827911146 0.6497417435387293 0.5378220619907107 0.12665999907410996 0.6370032773100524 0.575650319111339 0.8624176179821234 0.6946533493999393 0.8808697557478457 0.8717232744894913 0.8664404935178375 0.8877971156667489 0.12201565494221 0.6809199919642708 0.19338162809483472 0.4274661499852419 0.4024370874807378 0.310100573168257 0.3490384636162994 0.5271863726082298 0.44066718290502993 0.16719146247162298 0.22921035385905386 0.6758101115471762 0.8380510452584309 0.0513114804317828 0.9662964289887274 0.2794731248376384 0.051170328850601576 0.7078723694188035 0.6781350867617194 0.09734960770547396 0.7990637041849372 0.2338527698050007 0.53967309371718 0.015878397323128013 0.8785262353695605 0.7520500144231438 0.48132263552549825 0.39284014453871374 0.14247838878639585 0.5295911662957807 0.8823091968354261 0.6486414154402723 0.7256010457779652 0.31797916558502193 0.7469820008490082 0.49461453602740035 0.7143293466386255 0.9769430392018713 0.04516547044486818 0.27986750284640705 0.7190510148341194 0.5980161076387068 0.9701760056642091 0.9387667709722461 0.9368974462582967 0.49959970705511636 0.25571009096017117 0.49490746301676625 0.761797612643895 0.4330825670294689 0.3577803590989943 0.554363996874917 0.261355625707989 0.35055842841026563 0.09933152114391541 0.47165675351140246 0.38241716761942346 0.109460145904268 0.0008397826209005643 0.2296132691890429 0.6113663822034185 0.06641727642029527 0.18261044815730587 0.1880157892704547 0.6334563847022677 0.32076924636716975 0.07668551299681692 0.5251975322910092 0.702699169326867 0.3582367288643866 0.10776813671570928 0.1787757898397826 0.7729145982363288 0.7626767558095707 0.23302098875871224 0.38305397230303617 0.7791685042030894 0.800002081599074 0.9288854533809903 0.14423184291021152 0.7150303707694318 0.6135126238706552 0.03538222264116886 0.03134919588122653 0.8812007107363498 0.4741194621679927 0.41129016652742345 0.9912141063771435 0.14317005670390315 0.7659177748921261 0.7847440866017471 0.016249249671842048 0.8044582019366172 0.2557128415394653 0.13615098147086246 0.4465298849575141 0.7411011450798498 0.9962702503299494 0.7231724246379974 0.44621947198889766 0.9387750725154108 0.9061606012409381 0.8053953609007225 0.7233951753036324 0.8852242495988266 0.18627394440014144 0.7034585386234058 0.299373762381413 0.6384120505120772 0.5431587571137464 0.2514831153660334 0.9837340543985679 0.18782910480232895 0.8158071431739429 0.5414389594759972 0.8640778443272809 0.4871595552831862 0.5952318428837939 0.8632177894920151 0.22473287441485912 0.4149376073070412 0.9490575642870296 0.9084287096347492 0.5071095601968097 0.015719343589627233 0.59952143602501 0.09274535813953144 0.09514876202227451 0.9743028809830357 0.41668651074377294 0.7662507153602545 0.9091675654151358 0.9782678928041463 0.11781977955193523 0.1835002262430271 0.009585618704164633 0.14500792777439708 0.821636616960294 0.9569500003830871 0.16421174526265125 0.4509118324951512 0.7715841559280211 0.5126806359065395 0.5863809637178982 0.7175821956942183 0.5405086384946387 0.5248610617236662 0.039039264128847506 0.4794502663561343 0.6552684666411129 0.16456081076560491 0.5685586928615558 0.911646607448272 0.9486785578964306 0.9485981967482757 0.18377591351920264 0.8820017362026581 0.679947934030084 0.7292441537197898 0.2435798508385535 0.31568366660541936 0.21904966037896478 0.35043520670303574 0.8531744500755102 0.20818670285487595 0.9504701759852492 0.9001516783251247 0.05332734987086751 0.09066536111692292 0.4807433899007184 0.6218019506776171 0.2914866877067368 0.8605552297106235 0.5757687275718808 0.2907768580204676 0.5422360979665081 0.8357748724438009 0.7897496051173333 0.860444590849703 0.29903025341319256 0.5371688340856536 0.5508942193185884 0.44915026646995904 0.6613881212276932 0.38697338403682535 0.4156404425908462 0.5953878836506532 0.985892621963665 0.11466745519294752 0.12775281522144644 0.08710500375014718 0.3227198002727443 0.6429792755209349 0.3285297083599479 0.5835556101474728 0.29856681569221133 0.8969543603341437 0.6477314345494909 0.7935536676741614 0.6631897653085825 0.08036582378324286 0.45929596863001065 0.8948423393913262 0.9268624067701767 0.8964932216787748 0.46492470100407557 0.4157206038085296 0.9913488833874677 0.4850400485638804 0.07468637726622851 0.7417474244810688 0.7555763461372598 0.5563554297065203 0.49731824211737086 0.7569877248831266 0.42428955104654875 0.8306355716759601 0.8996748677110696 0.36656238105724626 0.8522834828658803 0.09509786576424017 0.3540550910099558 0.540945297423361 0.5629319515221507 0.5450341002002583 0.0029582264460291663 0.8728777706145585 0.9055815452656164 0.9945849824545316 0.1878744165217171 0.4737016111180068 0.09681156842146255 0.6868784587973488 0.69745263527644 0.49596105618226183 0.9645497733976308 0.28545276753746707 0.5230605691941984 0.11598641169187562 0.9407675919221609 0.14551821603064363 0.39943383537000576 0.5118650385004472 0.32717342266255756 0.20559483302434145 0.14662208085255013 0.9582488644040925 0.4236604331967576 0.29372612512550944 0.5283598655944001 7.363705958240985e-05 0.6866072962667557 0.5774851798811474 0.4073868087908167 0.38360509249047703 0.7659760396063203 0.2413397209892557 0.5350293327509803
Mitgliedstaaten 0.21582074169702825 0.4165643522503272 0.2608203889439228 0.17795129794823994 0.07900876735383833 0.5776763775481258 0.2984014311001092 0.17103285844104732 0.7381805985144655 0.5481350074700266 0.6747803426492073 0.08346302966080743 0.6281429881112417 0.8932379888367227 0.9529831345757921 0.43809150075515535 0.9286819216536091 0.9402708390196536 0.05178047452102308 0.22516090728085658 0.6222637247824107 0.7967981382212614 0.14826724922288892 0.041276769665846036 0.2347253957012656 0.28553073142488716 0.202280387047986 0.4760482577679922 0.8312621281693112 0.4811258379976293 0.11816217045386568 0.33196760729643615 0.8005669516181105 0.6216606905538217 0.12722581879150674 0.5509292380490024 0.6198117865423831 0.7996656094074484 0.9250159005990132 0.4725271781752609 0.9719783854900765 0.2365494944167218 0.33814187396765316 0.9529879265248284 0.698073977877447 0.1139035294022005 0.5344172306103366 0.836495504005071 0.18173912796456704 0.5159536220833904 0.5275407690767753 0.3623311643152328 0.9154324353512944 0.3056534025157833 0.40941436567217426 0.7118975944864742 0.17548810243221635 0.8865477958125464 0.3479859119746549 0.5342651892636173 0.47893693946597715 0.9262433790803141 0.12031365163750307 0.8954389262951529 0.7278700881127993 0.8481395412205418 0.08737148426453478 0.23506114531518796 0.5869405438621051 0.1488008889625384 0.5407292048951452 0.13229185481076422 0.8064715505472965 0.38541189782767393 0.881943928648924 0.39595031903840294 0.30066433411002447 0.9474151425772389 0.23828192886699184 0.15741958071851125 0.3546928212784345 0.208213890232946 0.22199260679786625 0.6499524871925312 0.3993425634878218 0.6211495770043448 0.07212652497881678 0.024428431052020638 0.5732413742663823 0.12253463136795695 0.9159684331579985 0.8004499511494861 0.4612416366839057 0.2582103369747665 0.7196126866034248 0.9713842192136136 0.8239548755824708 0.6547060854722653 0.949873503797467 0.19248100678017932 0.9509415490317605 0.01510589436620502 0.3148498374682881 0.6951536772567299 0.031192799743813393 0.7825785255375174 0.38302330070584134 0.46886310244221974 0.4888500528696742 0.5779962772431133 0.9195241908038922 0.4343738864925438 0.4673722375767746 0.37704922574782473 0.5631894690802286 0.8903685695695142 0.5386290126705866 0.788177356107671 0.03536612665021288 0.22733466144352732 0.619975446666794 0.5716655863743627 0.5239216554791744 0.7335027782166091 0.9554016763912937 0.5392191123254384 0.9534427492142645 0.22222720312167543 0.1247638603213731 0.35568052078742163 0.042035354440138284 0.48212526050497295 0.9271671499778146 0.847873759681861 0.5369961851112834 0.9067580541474111 0.47027132315116127 0.6231002430984168 0.37061824721997194 0.8902881737027242 0.3178391465694691 0.2550509100633117 0.7644742987575139 0.35875067586278675 0.6594831724521121 0.35122659886659413 0.10910406682438789 0.855935054451764 0.13851707940686953 0.6476731819254158 0.5294706401013907 0.8124045236278984 0.6302042623648323 0.7267947822292199 0.15378703102964109 0.7515795168396107 0.6091325084046673 0.8720384395091824 0.24233747659760851 0.7347110912696392 0.5270922237262765 0.6620512734102834 0.9987674806985998 0.9184772452508183 0.8731299724907374 0.8500096620519374 0.45997213458245656 0.6422855577797498 0.04151440874719381 0.92905948722726 0.5006766305753088 0.4040411334572662 0.8672034211476685 0.3539843108623353 0.7292309755327492 0.23740265039947117 0.5615582058469956 0.959739589602466 0.07987718018640932 0.6218813412229596 0.4701768196584417 0.09891226424132937 0.880901184555863 0.01538669489907607 0.26250919699617736 0.7952648578938705 0.9721801821864539 0.6759014511438539 0.2750349336622222 0.3654954130311222 0.5847952372868914 0.7395490197709753 0.7197688316630478 0.18691012756332415 0.6568094700267486 0.8094530857590024 0.5824682308022605 0.017666539126584446 0.537168618275044 0.496976490885759 0.16716213142015168 0.6445688959831386 0.9292552072490552 0.9961835896727285 0.9126751088133866 0.5577359173132457 0.5387570592255116 0.2512752154304033 0.4538782515780614 0.23777719712376089 0.4121380904446861 0.28038950571681365 0.536424648058996 0.8785038468757915 0.9013588874776606 0.5078704288918752 0.9472959945000715 0.7351596559286006 0.39613017152684327 0.4510048909581599 0.3763992956517558 0.14407278090831865 0.6053779730003863 0.41471137854321427 0.2737816026776846 0.6640304823142087 0.49103174445683295 0.4555031109314365 0.19272970926474442 0.7297013826165613 0.4704101921912409 0.741129083633235 0.24884360898864633 0.5819423407135577 0.6709837747929578 0.6019977358787468 0.31778185885466903 0.782617279612804 0.9210065699176899 0.5895925449331164 0.07667557557675109 0.11944286849935404 0.7842913737240306 0.16847737460810286 0.31588381400318766 0.35435466276251926 0.3006741882872148 0.6743639055866609 0.26761802165267756 0.5832798098369919 0.20056710169089942 0.8500566495727409 0.3878208439431199 0.1511865534580198 0.7983912976413644 0.7724374390658413 0.8040084938976421 0.6664775780199194 0.6930873781267223 0.1567770740585367 0.690633309223539 0.3654871076139189 0.23203316089439008 0.715639963870372 0.1314660434342756 0.5059345720109445 0.545291449248208 0.5851484676956651 0.5259300597150052 0.4882627719511953 0.03355606057746785 0.5073393241368768 0.6810737336112898 0.5134821691103786 0.5047796057159143 0.7488515103173535 0.9061182503291588 0.26902555675790474 0.24806998684391413 0.19243558659269877 0.7867705553483134 0.5067942631445694 0.214516926538187 0.9002498022863211 0.8122570262885968 0.2674229924542566 0.9479108602195132 0.33426638834119327 0.22037165879146658 0.2235667624533857 0.5075612695394861 0.5305992961990902 0.737062778930507 0.2139911797534595 0.16899065057712603 0.1912534644378927 0.40061801085701065 0.11881334365825635 0.8312159030189843 0.137363967409856
sind 0.16793801450942036 0.5484399821829725 0.5701933301322061 0.460217533154164 0.5208612676505275 0.04895036874832037 0.04997722417032102 0.20720785293701827 0.4837607101358081 0.3173381873140464 0.7731195593937448 0.84556066726623 0.5406297667769696 0.6027367878225965 0.5486202369897071 0.44489662929374396 0.12247570327430024 0.692976307722923 0.8064597314120429 0.4384328879755669 0.9467034550546982 0.3201736111529271 0.25631236992479123 0.9887727337237467 0.43150152821108256 0.4783810003948239 0.8062246626138293 0.7938065356042427 0.586113625585995 0.9392904447661071 0.26675775625175313 0.6010249509253303 0.18363429040660773 0.4575267291643442 0.4913558427017778 0.7078960178536369 0.41757758604055195 0.6420798996440992 0.47200564346289364 0.9574653181399491 0.8197100076272672 0.4242642883283604 0.4068416320028315 0.7987802730455423 0.11117332253159162 0.8764039493410496 0.8877245847820947 0.893822099943676 0.37287907961084055 0.8769146150122167 0.2866712731113763 0.5938654085990269 0.38896744279113526 0.807898508512016 0.10922085627115852 0.932884792511543 0.9421114485918098 0.12285830939930487 0.29161315452920133 0.26973929537014496 0.0649417445782543 0.05582850972997655 0.6201978658960494 0.5754565907708322 0.16844077803843993 0.7959161568347575 0.3022524467186706 0.220679178801217 0.4986427692612544 0.7569938540199661 0.21548343062337738 0.027563461514565568 0.5764536444537843 0.1534926050860247 0.9180344760771136 0.09796851924080097 0.5612265157993609 0.49358996270387356 0.5807919378450515 0.9085052901854986 0.3740615159225822 0.039209098201808845 0.47124384932786845 0.2301889430963704 0.11913579630138116 0.6745550219892733 0.9604247134809186 0.8428396802267489 0.5202528720959178 0.7430593093956258 0.4491107573373262 0.6015409092675291 0.6443847363712325 0.5600700656446826 0.6059054566481828 0.06270177911478936 0.46124088003972497 0.16031305545168428 0.5845921552567361 0.5458769801375002 0.6162842619066532 0.09148969444855215 0.34798832965934 0.2880942113654301 0.2959214717737566 0.46591563154801485 0.648150124821726 0.5510133571231437 0.39979710680748737 0.007242694123003046 0.949382620420944 0.9476623371380973 0.9573048228477695 0.19072537732980088 0.6796338378477438 0.5796744551886066 0.33223282291211576 0.4277349814433209 0.613709296150442 0.2348673002263001 0.6730952488923744 0.7598266427598946 0.020038904693478243 0.6100185489572649 0.007167633867481649 0.029207758094158764 0.13438245745693367 0.6580956339309089 0.2718390759579412 0.49540756532768526 0.5964015765380707 0.4362652957356057 0.8623322371229163 0.5705144509667288 0.7504567817137977 0.5926569750680071 0.24679551092336904 0.20001692663162562 0.8744939671922185 0.8062878591089679 0.2084920721696537 0.0652754193620303 0.9389821585194119 0.2800832045539534 0.33087630375000077 0.14886911133804825 0.35127053661636354 0.35012996707517274 0.072969028924592 0.7350200340467438 0.26334628411194194 0.03506152834637155 0.08035846572319616 0.20205239260452368 0.05586396548240524 0.10706492851279481 0.29603122333617704 0.27141055352444265 0.35239201377500007 0.6933400719671117 0.22401715063301564 0.43003121668306765 0.5277503996418345 0.3247528528819873 0.7538198526869186 0.711939143940899 0.4272795212219619 0.8572761295672205 0.5281445645679637 0.41883413266297387 0.21958745994367035 0.23970655239944272 0.8466293601870718 0.2802177905030593 0.2475657192905042 0.5637087886929845 0.7473714761037686 0.013902879477464714 0.1869329420052649 0.7105963894558632 0.9609041742882048 0.8578390713458405 0.7292083984577581 0.6799424679736199 0.2862012249542586 0.9001769349758516 0.12616785877648318 0.23734725870766316 0.4794188576217523 0.34521632418369563 0.5736767914781677 0.8484135381493406 0.41393119173028814 0.06214720159568865 0.6173692021895791 0.9779783505357472 0.4017639970497141 0.35717112716564636 0.3484172182908173 0.9966960607996169 0.5252582075221205 0.6815855193562421 0.31322853907446346 0.21262888778167033 0.9330827613895377 0.6106776537636839 0.3065343953801565 0.14637658806156872 0.13168280237513963 0.004727338776379986 0.4238559847556981 0.15902185556992277 0.6532170815223144 0.2267792858550436 0.20757033617453313 0.6810199766213071 0.45471058572019596 0.7232998668451822 0.5545220491971904 0.7713961226744979 0.20486102576530474 0.34651301074625307 0.5855638731443703 0.21713268261213048 0.7459861564243582 0.4812172647149473 0.43604193234182786 0.7525530390269113 0.5661658119826602 0.3930736193898847 0.1294421155908384 0.14467318173742105 0.004167745099027842 0.7228966341241088 0.08722240899253675 0.9725049885887359 0.7772419180490661 0.27511715284761984 0.2007552089862088 0.7466188682846152 0.4873158631598482 0.3171326883901817 0.9472700122743294 0.024967706999251882 0.17374212009922785 0.4157743622420853 0.6582195275707827 0.24106969972501258 0.4582067444126915 0.13825635194866848 0.17476722241000453 0.6659867439453443 0.5529405565919514 0.3117434930786205 0.36536950331457974 0.2779469341348625 0.21566441431831196 0.5819338605308396 0.5761777090353396 0.684148967610925 0.7851439688424826 0.5259740864865391 0.47212879178436395 0.5046561754490425 0.7454781199794447 0.009025035147807725 0.17607632026434739 0.4354152705156622 0.40974776099866494 0.7666872936039518 0.3412878359705067 0.6597604506130252 0.4639578016959217 0.6321375269364299 0.9171975478791254 0.08284046915405707 0.6172024627495506 0.8338429487267023 0.4257506699569602 0.07302725118121989 0.9848707744823959 0.11752815074503808 0.5962427050832818 0.9124101199655971 0.12944690579001683 0.8281212774584453 0.2636824219161146 0.4449743333196875 0.6186555481236397 0.3009548943919592 0.16326641889396143 0.09327442778063566 0.8559208456870033 0.5325972506148238 0.25578109537242355 0.4739753626419617 0.904398059685203 0.6429676668529845 0.41463069668632613 0.6726323097685334
unserer 0.20103723834827758 0.9067577742066202 0.9404458400238563 0.62367819602031 0.05378251282580959 0.2223033272732574 0.48604195604573597 0.7262191483067432 0.16914206704490264 0.6998695108379733 0.21202721156982463 0.29495043944987587 0.9807508251149749 0.1711037026395501 0.4435351034055287 0.3519725506897834 0.884703543481425 0.3667970645637424 0.0032517085786463173 0.07192147547706051 0.38517583968244185 0.5808769632912385 0.6920076498001877 0.9969650422468069 0.2711512102419348 0.29438608131927013 0.43556168271410156 0.04103526834878257 0.9690401713552003 0.7347627175455476 0.5476992938462395 0.2502407935002612 0.4320614603944041 0.7920488125649318 0.586769394796852 0.08261857045803733 0.805959139567927 0.07029723879649263 0.6334360492726049 0.6515730154960642 0.1524131662995245 0.8360005803066004 0.14092069318330613 0.39280837752833286 0.015105013253093658 0.7015673816262475 0.9308226892235054 0.16293945800263698 0.8340269356360328 0.9553952788396357 0.9711132312916602 0.425503544751733 0.4424548085863582 0.31699489146913606 0.4744642489787483 0.9801209327890749 0.22216492818568956 0.5143994587291337 0.4932399771261452 0.6556090567573989 0.3719808400165211 0.7480022024546931 0.9430308239257994 0.23368972027460866 0.18252416903272728 0.5588505915168437 0.9822686657449075 0.5594672931783183 0.076935359422593 0.19045519573315917 0.9047519963371797 0.1411835352328008 0.7925576826205243 0.11734700050187019 0.804311655295569 0.5243722982124464 0.0183472464614306 0.3115407129900851 0.19626187842954113 0.2484663127305704 0.066147065714949 0.13956371627538022 0.06323562479474143 0.3749322014968881 0.2598223989046965 0.9064991087965373 0.23326950415567915 0.6517013539648226 0.9430857709832949 0.2503000187141997 0.22804551634296188 0.01853574300235883 0.9013333976706133 0.8604363065330387 0.4073623605617316 0.10992043763689363 0.6007165186147836 0.39481340211168303 0.14147407281396107 0.493526810139028 0.3011270318787831 0.5414709690103626 0.86378955038259 0.4030081098464007 0.9218783373754545 0.1721135459053983 0.10951753044428647 0.32050243811897383 0.8671483868587937 0.9096915125640956 0.26616272729303503 0.4713638836683628 0.44272692442847605 0.8396500323949145 0.48068795212919413 0.7443382075928038 0.6699943218189315 0.11813262448485584 0.4214812784537322 0.19293658540810044 0.5876458200925547 0.17855823114986114 0.2055119185117661 0.19492538611136745 0.4407233370827336 0.5369966926536632 0.9664282972937948 0.3556209689318036 0.7545089481822777 0.46897553927283697 0.30862169062215794 0.05144818147044805 0.7489643692397573 0.652257134974023 0.2183182025285032 0.411118823853429 0.09338114791970853 0.7619961034113365 0.8603758499505914 0.3462326691279827 0.34637256973430175 0.34191733550528514 0.33774286461893965 0.830172005681044 0.6413653853950625 0.21015824868245314 0.6539884237638335 0.18649446853231644 0.9424967664176803 0.9884179241050085 0.3022000960237755 0.184943151684424 0.09596124328618161 0.4098796284799814 0.28343605054412535 0.2385592304568328 0.7392289716579875 0.2106394669301621 0.3994041930298994 0.3908199933614547 0.15232329855082183 0.6861938618454727 0.7852814669442896 0.6567449557653684 0.4842455035696782 0.5349643963467032 0.9917559494308966 0.26858323738706513 0.9010820334545481 0.6210294816199694 0.47700839667709305 0.48065945358083384 0.7138394027614627 0.040248708172179404 0.11522763160376936 0.47323282684595536 0.18134054272005795 0.6142781118442621 0.3534438375468444 0.858479302187995 0.26245673925160073 0.001552052112924196 0.5519090581814607 0.8452695793985131 0.7445834885245243 0.6497798773650796 0.0885468332543029 0.19728643885037356 0.39748817024398564 0.3536300704085502 0.9734997231966998 0.8311239329580857 0.6049943471352518 0.6870026359530712 0.20061857472489708 0.784848395274214 0.5534744094298784 0.8423002907169846 0.1785160551826832 0.25402816321687804 0.13256676664026956 0.03490040275100892 0.6425639597258744 0.5065505908279149 0.5237763927872696 0.24517481008588538 0.6521307116312299 0.4002750688396174 0.3233687847764649 0.13890151820208174 0.4362104584792009 0.16983096365316008 0.5358774267474239 0.12607863574802136 0.11388933647729327 0.7381343532546145 0.6484848177634313 0.6741755561657194 0.6665035586111145 0.8428204672039179 0.4492237063702751 0.37265302202646244 0.45790496492152444 0.2117506252925765 0.23092093993476315 0.883876170055226 0.08431891089004284 0.5369844501243114 0.7650287796815178 0.6378435263098431 0.39972057142062234 0.03449130148580959 0.6140299620560201 0.4774222533032757 0.5769463047515578 0.2651237638306886 0.8164031704502871 0.05243628714381399 0.29262157020570867 0.4631722283112294 0.5928810856356895 0.08150728671159235 0.7295140330190372 0.25443210946834205 0.03753291174877882 0.24627744593873035 0.06377108433792444 0.21769885634716057 0.4724132032880578 0.3047345819490852 0.5658065643798095 0.6852362643874219 0.7404232300519631 0.22212234791919017 0.24554669268111418 0.6918464543420786 0.3213931926610344 0.2509015507875263 0.22210991360648302 0.3439991728009417 0.4501557887472696 0.13980370809377174 0.5693805475093834 0.11801504123126838 0.24714758634723588 0.3189222639919761 0.5464963377110308 0.9571770277185329 0.09660333982919866 0.5596960633520897 0.22624732415928073 0.45153861932958395 0.6632315742764018 0.3485927561186922 0.21533853122951885 0.7994860530500268 0.8444994439054099 0.4911660209034716 0.2801026631409088 0.09858340205923455 0.47765859642838937 0.319621079724687 0.9242825965481644 0.8042139600041049 0.8490957743107415 0.2521755695744361 0.5796577323425927 0.6616931879609459 0.22595672858679894 0.0861034332215056 0.4502961661473901 0.9910431997885041 0.08960007566105155 0.24495070776995898 0.8379137743465903 0.04441311840177198 0.08805173756841922 0.3746403916374572 0.590248473184167 0.5729956103393722
Doch 0.343065239055948 0.36314465853405253 0.03755476361343224 0.4082231156008609 0.2935784756262989 0.860719962811057 0.7921168732907347 0.4692241905763652 0.5910984193560812 0.8734562750217878 0.721049128614379 0.2989946077053759 0.1955619347023756 0.4701290809306622 0.43213298254621224 0.5493595988167438 0.17811163162299026 0.9492292730314017 0.7899864102243874 0.5448177773989447 0.1661730361837851 0.17292190723097556 0.6853345327836764 0.8321438015651247 0.45651398549673916 0.703016227033197 0.042658151909756525 0.8103414684984281 0.6244777588137385 0.02342439739762503 0.90120008602543 0.8247723292392297 0.5847436799044118 0.11035652979358457 0.7779303876071418 0.789498616607133 0.20795482291432188 0.7215314235730255 0.6422926722377421 0.5062956040795167 0.16193096523227735 0.9564084783129467 0.3315485890304619 0.2952737114323526 0.6150311355415472 0.8550795507113562 0.8889220975045945 0.9180348431856372 0.37525906083383764 0.8271092947529979 0.9930939913792837 0.3344667649509877 0.4643208950719645 0.7536174310481534 0.6516989052368798 0.8630350618464765 0.5283268086745783 0.537107863275544 0.2804034188624016 0.8924239852626183 0.8790987790689523 0.497797979947152 0.39989122174965797 0.8349775707669541 0.9492812917807786 0.5609463870710917 0.17011061734725075 0.23975278639956132 0.1302255891264621 0.565040701099015 0.968225109935884 0.17778371818136296 0.25522555751019615 0.48123911576729217 0.7411962295778483 0.1231859887357325 0.5800243177775803 0.5815916570735946 0.0036739044119611375 0.6877953169768867 0.9254201646457284 0.5416930394091874 0.28739579649446445 0.05791461488768279 0.10427223087856818 0.8620518009380843 0.3791332068450616 0.4853407496566984 0.9890125464692836 0.8100763026803331 0.15663612355720136 0.8634446566499907 0.06949680372505995 0.9847654201502715 0.8503704946209564 0.4285084568662323 0.06116846167200052 0.7481080757841415 0.9412016035487282 0.19715790965571733 0.9038540547724225 0.29035138182882836 0.16635841980097976 0.9584751858792808 0.48213694682838426 0.16017967922888732 0.03171982979862653 0.20603552968955385 0.7055200657311366 0.21244861159046946 0.015544270556421158 0.2765102928293838 0.6279972683832461 0.2852959972417768 0.7386973785950994 0.22958123596427016 0.8668952095248429 0.21241078052699802 0.49606906570376075 0.17176003711216725 0.9274557143934136 0.9593390424835775 0.6227059270596345 0.842385379664218 0.3359557736599159 0.9901348422370227 0.6755861873894671 0.34235560193864356 0.2928040622069201 0.4067098939852286 0.8006982168252063 0.3390821957708676 0.039294066499824365 0.2125981148780406 0.8035419401226898 0.04123916935834937 0.9013162326214555 0.9460424497056718 0.6470229857620291 0.4351919478304602 0.14579211830873673 0.8652378112204508 0.2151025791031419 0.37594648939506703 0.5713189383470555 0.6891247544448469 0.6566706190361149 0.3291048965983767 0.6026362466330825 0.8145648963877337 0.7056853486148853 0.8699153479857554 0.23510423177313344 0.5882982225173071 0.5647139725142551 0.9672824041883933 0.816150313412751 0.9893496865127297 0.13301433648851557 0.13314456184189527 0.1985749550989524 0.6598264663118537 0.5711848729101355 0.7483311967794147 0.9526129680178855 0.7469424866918085 0.8457472141561934 0.7932129550910134 0.5728608398544788 0.7771195668153072 0.6096967056760434 0.017647204048286014 0.7391266856262044 0.7447336304077873 0.1630881205859186 0.06791031377055479 0.354434217892033 0.5051611386074901 0.3426237250141021 0.03426659516251973 0.8613149472344556 0.9395915001685007 0.10041594317943114 0.05083112504522547 0.6159837399213439 0.42471041786166197 0.7023756563237453 0.15183183391420974 0.15619019307064996 0.22954307015147923 0.012881722129765127 0.1817564314490715 0.5261980365201017 0.5773475138626443 0.6631698903552895 0.9187654242970121 0.56777452097576 0.8553123440151679 0.4967201828798904 0.9257262954686529 0.5975110847782081 0.06871583899895028 0.8220165266182652 0.9526127097366175 0.9973432309263717 0.4750029803391197 0.269819823720026 0.3613680781214902 0.8661796799222234 0.16214765019554267 0.7516984947763249 0.494707312717675 0.19793050269529733 0.7007322274692098 0.6139002642705973 0.16183222204795766 0.20720239028790122 0.48612528459494064 0.4194648920402805 0.6386791333687041 0.9458360941571204 0.770262118573138 0.899849782072211 0.8779323921320029 0.033061829472779025 0.2561543980371428 0.4121900790847789 0.045272607911578944 0.09199604361663949 0.30694077194380054 0.5924921548274708 0.2874499962522613 0.28250349016818177 0.08498275301390801 0.6871528870636174 0.39808439552831143 0.7989733446319427 0.749621797310477 0.632008824299031 0.3952582129221336 0.6563530817776089 0.9003790835334654 0.05229378569196608 0.6563781924749033 0.8160542517773478 0.7100290312925768 0.20349505170641036 0.4793725860858856 0.4984184687229932 0.6418845701166972 0.4900939220074867 0.6922984753447586 0.523166960561262 0.1495997160148047 0.2360330589436952 0.8252683026373075 0.8005849307728615 0.7698412894517219 0.661194285537446 0.6311698105608256 0.24913879474496825 0.009146640985145393 0.13605405354949773 0.4059315722301695 0.016744408617861528 0.8615389023484809 0.8846821968437234 0.5902135015918221 0.32375717808928484 0.7325121103694193 0.7995309126379343 0.8677591291423947 0.20961963074074697 0.06594033709639724 0.15665667799242922 0.1551224818165592 0.48748943436138115 0.6790055455717595 0.061248385113055526 0.1712918716350491 0.26573245545134694 0.9888490139001591 0.49439608108438826 0.07233546443031447 0.4664045017704468 0.8153335347993435 0.1254439486847061 0.0480541178595838 0.44865303642139365 0.7480314693825926 0.8850794587109302 0.972210486703746 0.5724183437030836 0.6218119621750603 0.07197862236576091 0.5918035326935397 0.19411640750058834 0.5899333762621896 0.6287816992075882 0.7316663786929445
